 -0.09324432
 -0.03840887
  0.03351165
  0.02857744
 -0.02149612
 -0.05239686
 -0.00877260
 -0.02617770
 -0.00028468
 -0.01681762
  0.00911655
 -0.02982199
 -0.04799123
 -0.02298414
  0.05350881
  0.00213395
 -0.00406038
 -0.02162605
 -0.00723309
 -0.06040227
  0.05656890
 -0.00419439
 -0.00715488
  0.02758749
  0.00768112
 -0.00000267
 -0.01815831
 -0.08451908
  0.03509431
 -0.01311925
 -0.00344394
 -0.00492394
  0.05325263
 -0.00372200
 -0.00063960
  0.00821172
  0.04295637
 -0.02967753
  0.04249436
 -0.01082090
 -0.01922351
  0.01346517
 -0.04867391
 -0.03157732
  0.00992947
  0.04661232
  0.01027833
  0.01579962
  0.02330475
  0.00843226
 -0.00963043
 -0.02091324
  0.05479959
  0.07029895
 -0.03168747
 -0.06493290
 -0.01438652
 -0.07130660
 -0.05360412
  0.05819079
 -0.03448783
  0.00552209
 -0.08888372
 -0.07727978
 -0.01562846
  0.08118176
 -0.02526316
 -0.11351865
 -0.01658509
  0.00003473
 -0.02201605
  0.04562631
 -0.02091516
  0.03933149
 -0.01671198
  0.00262782
  0.06274622
 -0.00192670
 -0.05322283
 -0.02056924
 -0.03002636
  0.00100456
 -0.02643784
 -0.07213666
 -0.03194542
 -0.06585835
 -0.01667277
 -0.01616051
 -0.06377308
 -0.04991408
  0.05030117
 -0.06535407
  0.00360646
 -0.01881095
  0.01529800
 -0.01468324
  0.02603614
 -0.01051509
 -0.03367263
 -0.09286256
  0.06620018
 -0.05193666
  0.06577057
 -0.04306652
 -0.00110059
  0.05240236
  0.08582241
 -0.01469847
 -0.08865533
 -0.01438126
 -0.04792185
  0.05028708
 -0.02022487
 -0.03706311
 -0.02406293
 -0.00367601
  0.05375113
  0.00193862
 -0.01537463
 -0.00922525
 -0.03725045
 -0.02801502
 -0.01487742
  0.03675143
  0.06658375
 -0.02048900
  0.02720145
 -0.06501064
