  0.16957836
  0.02624214
 -0.08733837
 -0.01698652
  0.18186480
  0.05135708
  0.00518965
 -0.07864571
 -0.03075251
 -0.07643639
  0.04901067
  0.00138397
  0.09500754
 -0.08642811
  0.04600886
 -0.04661706
  0.05613691
  0.00943932
  0.04997984
  0.04727284
  0.12705229
  0.03182665
  0.03269435
 -0.11786184
 -0.05293786
 -0.07237280
  0.01926873
  0.03672652
 -0.37656465
  0.07720642
  0.05540192
  0.05023988
 -0.37061647
 -0.17952041
 -0.09139752
  0.05069654
  0.04594537
  0.02818664
  0.08132870
 -0.16408370
  0.00921453
  0.07239967
 -0.05945481
 -0.11149263
  0.04795458
  0.09988085
 -0.04227197
 -0.14756905
 -0.07463328
 -0.18191765
  0.03166341
  0.00205016
 -0.05585766
 -0.01229864
 -0.04547213
  0.17734863
 -0.03381038
  0.05046871
 -0.06706939
 -0.11324783
 -0.01144199
  0.00161745
  0.07361408
  0.04746534
 -0.01897799
  0.10747583
 -0.10733887
  0.00564015
 -0.05429490
  0.09463589
  0.04677613
 -0.19577010
  0.14533547
 -0.12586144
  0.07496651
 -0.04264477
 -0.27416250
  0.01578417
 -0.10478327
  0.10690546
 -0.04102940
  0.06995212
  0.15793586
  0.12014042
  0.06941571
  0.13540049
  0.07442682
  0.04696601
 -0.22412625
 -0.05730993
 -0.16731268
  0.13514388
  0.05523941
  0.01086890
 -0.19923003
 -0.00594949
 -0.01086922
  0.02199758
  0.00080441
  0.02022763
 -0.02475586
  0.05112236
 -0.24308823
  0.11409868
  0.07864168
 -0.15179020
 -0.17269513
  0.08760688
  0.01786391
  0.05292876
  0.01128439
 -0.14381744
  0.04402355
 -0.03662089
 -0.05947804
  0.04436984
  0.06906742
  0.06472578
  0.01521765
  0.04883632
  0.07251544
 -0.24037410
  0.12674110
 -0.17925657
 -0.23607215
  0.01397642
 -0.21412048
  0.05931339
  0.05562294
 -0.07421653
  0.04707218
 -0.16527869
 -0.03454980
  0.00025490
  0.06753296
  0.04092098
  0.03321106
  0.00157518
 -0.00916930
 -0.14183420
  0.05829143
  0.07918952
 -0.03662012
  0.01931292
 -0.03269690
 -0.03910990
 -0.04039982
 -0.24453084
 -0.12234025
 -0.03616811
 -0.07758481
 -0.13567878
 -0.06159804
 -0.02780066
  0.00028351
 -0.04979392
 -0.10566069
  0.06786744
  0.01149795
 -0.00352875
 -0.19572186
  0.02706536
 -0.03220238
 -0.01083100
 -0.11477245
 -0.01683179
 -0.02772389
 -0.04086916
 -0.05753097
  0.04778253
  0.03307156
  0.11930236
 -0.20378275
  0.09827369
 -0.02452900
  0.06654657
 -0.04729249
 -0.12729149
 -0.08081111
 -0.05707185
  0.09935466
  0.06203874
  0.03650428
 -0.05251313
  0.01683522
 -0.02008998
 -0.07157235
 -0.21908784
 -0.32203582
  0.01664596
 -0.04681322
 -0.03608435
  0.04688678
  0.06728942
  0.02674893
 -0.16330004
 -0.05607001
 -0.00091176
  0.05093366
  0.12416503
 -0.02853023
  0.02083232
 -0.07820295
  0.02505385
 -0.09883513
  0.08175226
  0.10108746
  0.10492697
  0.01915115
 -0.00543076
  0.18553503
  0.01557390
 -0.19009525
  0.10586413
 -0.07126018
  0.16522180
  0.15743890
  0.07319457
  0.06064257
 -0.27628404
  0.01843898
 -0.00855120
 -0.05863013
 -0.04902281
 -0.15775530
  0.03435457
 -0.41302449
  0.04595493
  0.09011142
  0.05708390
  0.13050002
  0.00234416
  0.04329039
  0.02756994
  0.15031600
  0.05634363
  0.00702154
  0.05752257
 -0.00648665
 -0.01126891
 -0.04298362
  0.01201188
  0.00853453
  0.08256112
 -0.07365758
  0.01136184
 -0.01845211
 -0.06599433
 -0.10580888
  0.07305198
  0.14869073
  0.05141340
  0.01918857
  0.02738102
  0.09175476
  0.08062425
 -0.14542392
  0.06997173
  0.08638508
 -0.22589730
  0.11285321
  0.07421708
  0.02950837
  0.02052260
  0.02560798
  0.06228453
 -0.03879489
 -0.07594084
  0.09847413
 -0.07303590
 -0.00463674
  0.05221746
 -0.05777919
 -0.07930972
 -0.02251437
  0.01361875
 -0.16292238
 -0.07825417
 -0.06661540
 -0.03128862
  0.05519741
 -0.03134989
 -0.04198759
  0.04027835
 -0.13509829
 -0.02943733
  0.01379093
  0.07290129
 -0.31261379
  0.08143757
 -0.04181566
  0.03029424
 -0.10804167
 -0.01592185
 -0.08717052
  0.10574275
  0.04400924
  0.07003083
  0.18699838
 -0.00224006
  0.06592026
 -0.21574727
  0.02245576
  0.06586703
  0.16396199
  0.19095892
  0.00074444
 -0.01542204
  0.04950490
 -0.08052488
  0.01935331
  0.03561443
  0.06649025
  0.12405328
  0.00247672
 -0.20827025
  0.05273435
 -0.06084688
  0.07907181
 -0.05277310
 -0.04241016
 -0.00931231
 -0.08177692
  0.15713243
  0.06337089
 -0.10784112
 -0.07033431
  0.15108687
 -0.21865080
 -0.17627360
  0.09277242
  0.01712437
 -0.24644986
  0.01305680
  0.01428033
  0.07124120
 -0.03108203
 -0.04336009
 -0.09521839
  0.01577652
  0.13452512
  0.17763457
  0.08637787
  0.06164331
 -0.08149984
 -0.05658682
  0.08272591
  0.03099689
  0.03718139
 -0.03952309
  0.10399609
 -0.00794592
 -0.08228315
 -0.07142812
 -0.29549807
 -0.04228888
  0.04027982
  0.04605727
 -0.12214825
 -0.11782447
 -0.10138727
 -0.09598827
 -0.19684401
 -0.06708509
  0.04004619
 -0.04073608
  0.00041021
  0.08355638
 -0.00011266
  0.00921486
  0.08127537
  0.07886642
 -0.07163292
 -0.06937619
  0.07122330
 -0.09012711
  0.07763117
  0.31679899
 -0.15040921
 -0.04139169
  0.09274551
 -0.00452237
 -0.19814824
 -0.05084872
 -0.06389675
 -0.02605512
  0.05700082
 -0.10452939
 -0.03020124
  0.03527267
  0.14967537
 -0.04685394
  0.02673242
 -0.01396893
 -0.02569243
  0.15304558
  0.08968951
  0.06765982
  0.10918251
  0.02016494
 -0.04477140
 -0.02877789
  0.05626199
  0.11006250
  0.08269066
 -0.06502515
 -0.04835187
  0.01226775
  0.01892016
 -0.02386135
 -0.05413858
 -0.01612157
 -0.15697145
 -0.06552114
  0.04390145
  0.05492749
 -0.03519253
  0.06227688
  0.06623291
 -0.00585292
  0.05724148
 -0.07454053
  0.08325029
  0.03377360
  0.00937079
  0.10014389
 -0.02571813
  0.01609664
  0.12907776
  0.12800205
 -0.09183143
 -0.03891202
  0.16461125
 -0.14155681
  0.03713531
 -0.09428664
  0.11747846
 -0.34506303
 -0.00012885
 -0.19491664
  0.03257768
 -0.22538991
 -0.04148024
 -0.14788662
  0.01689520
 -0.05801301
 -0.00417694
 -0.27753183
 -0.00461595
 -0.24907862
  0.02422760
 -0.07044665
 -0.01721528
 -0.16998827
 -0.24141628
 -0.22622734
 -0.07081281
  0.01568909
  0.10884177
  0.09240277
  0.07994483
 -0.03997584
 -0.06604522
 -0.18977723
 -0.07696528
 -0.08889004
 -0.07042047
  0.00806686
  0.06600577
 -0.11523832
  0.02588736
 -0.01461212
 -0.09582181
 -0.00980445
  0.02417640
 -0.05090259
  0.07364626
  0.01759462
  0.05659147
  0.00250527
  0.06894428
  0.07217456
 -0.14846601
  0.01834531
 -0.11055613
 -0.02695944
  0.16591536
 -0.10884698
 -0.17768607
  0.23951294
  0.17010206
  0.01020336
 -0.03103446
 -0.00036464
 -0.03558939
  0.09509784
 -0.01513676
 -0.03664976
  0.00015977
  0.00972439
  0.06852943
  0.07686436
  0.05732219
  0.02311899
 -0.03215345
 -0.09053697
  0.01086719
  0.06455170
  0.08213301
  0.05155575
 -0.17570542
 -0.03209074
 -0.04531178
 -0.01240823
  0.13397229
  0.07935894
 -0.17868614
 -0.02203761
 -0.08329100
  0.01626765
 -0.01496611
  0.00342634
 -0.02603457
 -0.06387688
 -0.14596552
 -0.00427259
 -0.18823983
  0.04879079
 -0.08352213
  0.03370450
  0.03210576
 -0.22847822
  0.00860730
  0.06794965
  0.01675877
 -0.18940239
  0.07811455
 -0.04118560
  0.01530035
  0.04071932
  0.26803288
  0.05507498
  0.04096816
 -0.01245898
  0.10446290
  0.07377361
 -0.02379249
  0.07189592
  0.05580043
 -0.00710047
 -0.26429179
  0.08336825
 -0.03230591
  0.06498659
 -0.03019972
 -0.23933449
  0.06544743
  0.01121257
  0.03637910
 -0.15708850
 -0.19852287
  0.04195757
  0.00450143
  0.04109417
 -0.16641840
  0.12180244
 -0.01785772
  0.14692755
  0.07192875
  0.02703960
  0.05478670
  0.07436133
  0.03760187
  0.02024802
  0.09994050
  0.03791759
  0.07798596
  0.03161152
 -0.01665897
 -0.05267765
 -0.04425644
  0.02388438
  0.01164485
  0.04944308
 -0.11403731
 -0.11814674
 -0.18152905
 -0.02537509
  0.01822292
 -0.01072571
 -0.01731564
  0.10985708
 -0.01174965
  0.02400311
  0.00426288
 -0.05301940
 -0.12099054
 -0.14535840
 -0.07316177
  0.03573310
 -0.03502965
 -0.03433594
  0.11868133
 -0.08468041
 -0.03170687
  0.05142084
 -0.35790762
 -0.01321889
 -0.20878030
 -0.00111858
  0.15445274
 -0.01679492
  0.03022350
 -0.03995782
 -0.11309060
 -0.07526833
  0.01469595
  0.01643126
 -0.13400672
 -0.03681307
 -0.05074982
 -0.05766103
  0.02261837
  0.08155077
  0.02967206
  0.03158316
  0.01678658
 -0.06369083
 -0.04333116
 -0.06720699
  0.03207029
  0.16197439
  0.04670889
 -0.13374437
 -0.18893525
  0.10774640
  0.04484039
  0.05707438
  0.12034380
 -0.04481629
 -0.00667093
 -0.07550246
 -0.00311097
  0.10588733
  0.15300158
 -0.04170752
  0.02525992
  0.05547019
  0.02795874
  0.08049481
 -0.04840914
 -0.01328709
  0.09151687
 -0.04430229
  0.02915285
 -0.02960420
  0.00842356
  0.07247342
  0.09191682
 -0.01347317
  0.12383261
  0.06083518
  0.08054622
 -0.21223170
 -0.04075281
 -0.07659151
 -0.01715321
 -0.03727616
 -0.07205526
 -0.01499494
  0.06385711
  0.08071227
 -0.07390843
 -0.09107650
 -0.00572662
 -0.06929351
 -0.04285417
  0.01915413
  0.07195209
  0.05006474
 -0.01679142
  0.10732074
 -0.00679774
  0.09559013
 -0.13604221
 -0.09813342
  0.02202712
  0.08583285
 -0.10854441
 -0.05749431
  0.04366808
  0.00664402
 -0.26506838
 -0.16989800
  0.00055399
 -0.12382221
 -0.07407209
  0.05128554
  0.02130610
  0.10370090
  0.11262399
  0.01379442
 -0.04801817
 -0.04691871
  0.03936741
 -0.23017000
 -0.05079589
  0.01532778
  0.00380039
  0.06666858
  0.12208678
 -0.02165923
  0.05065827
  0.10044981
 -0.07304136
 -0.03379844
  0.05686748
 -0.07337774
 -0.03535204
 -0.34507799
  0.05350612
 -0.07301691
 -0.19718052
 -0.00999838
  0.03639739
 -0.09080872
 -0.07261302
 -0.12998775
 -0.05522447
 -0.10289100
 -0.09022053
  0.06064068
  0.01905257
 -0.03587392
  0.08826318
 -0.07315256
  0.13128623
 -0.06376474
  0.05543978
  0.06530111
  0.02323009
 -0.05220016
  0.08184149
 -0.11408623
  0.04394242
 -0.03904827
  0.14228365
  0.02259658
 -0.01783891
 -0.02060546
 -0.04812894
 -0.21954827
  0.07383712
 -0.10703187
 -0.05285594
 -0.02159155
  0.07577351
 -0.02946658
 -0.07845978
 -0.11698578
 -0.21325146
 -0.15141284
 -0.04535810
  0.08156534
  0.07835845
  0.02981540
  0.21296132
 -0.03205490
  0.14906321
 -0.04647251
 -0.11747814
  0.07933827
  0.07563255
  0.01229922
 -0.04854369
 -0.01568877
  0.04427213
 -0.02999227
 -0.01015548
  0.00142107
 -0.08047662
 -0.00713705
 -0.17986281
  0.00466395
  0.05495190
 -0.04079939
 -0.05693155
  0.07508188
  0.03298517
 -0.06478114
 -0.07446397
 -0.02686829
  0.01135000
  0.02762241
  0.06112983
  0.03871344
 -0.35105404
 -0.04059427
  0.02590603
 -0.07276259
 -0.20796546
  0.02568398
 -0.00861303
  0.08130596
 -0.07221830
  0.02258946
 -0.11272290
  0.08003499
 -0.03750631
  0.08782722
 -0.02329315
 -0.08347335
  0.08356924
 -0.14081717
 -0.08165098
 -0.02101241
 -0.32016706
  0.08549537
 -0.06649428
 -0.01040562
  0.02360922
 -0.16166855
  0.00532118
 -0.18578748
 -0.04343073
  0.02905129
 -0.02302682
  0.05076747
  0.05726986
 -0.00415427
  0.15104954
  0.13251467
 -0.04800605
  0.00353361
 -0.01201299
  0.19257171
  0.04896798
 -0.01709207
  0.13171777
  0.13024749
  0.14480293
  0.10924602
 -0.07479839
 -0.06587800
 -0.15263188
  0.03609729
  0.03987962
 -0.36116496
 -0.07030719
 -0.05998360
 -0.05118648
 -0.02438911
 -0.18012542
  0.09349690
  0.01793923
  0.03268651
 -0.10722735
  0.01205220
  0.03035684
  0.10518852
 -0.07129386
 -0.07241387
  0.10509247
  0.01494110
  0.01882746
  0.02707434
  0.10632848
 -0.06771553
 -0.17903048
  0.00045129
  0.07560867
  0.07942442
  0.07766677
  0.10607097
 -0.12182974
 -0.07788265
 -0.05306788
  0.00039198
  0.01260974
  0.03336794
  0.00400891
  0.02033078
 -0.09256456
  0.05958687
 -0.24917324
 -0.06047871
  0.06327364
  0.11724330
 -0.02850473
 -0.04786687
  0.05771358
  0.02444448
 -0.37741029
 -0.03976576
  0.16223750
 -0.02477153
 -0.06420127
  0.00895183
 -0.09114534
  0.04162801
  0.00546086
  0.05726775
 -0.15159324
  0.02420540
  0.01243495
  0.02647268
 -0.02898389
 -0.07076668
 -0.07519001
  0.06921252
  0.07407310
  0.03364239
 -0.02728262
  0.00804237
 -0.06312577
 -0.26588914
  0.07597300
  0.08548229
 -0.01741462
  0.11227284
  0.05792429
 -0.07475106
  0.01432293
 -0.01032275
 -0.08674172
 -0.04553099
 -0.01244996
 -0.00586809
 -0.12431773
 -0.14270675
 -0.06311355
  0.05187029
  0.05067720
 -0.03248780
 -0.04246455
  0.03149791
 -0.09584820
 -0.12310573
 -0.27889845
 -0.00302008
 -0.12762421
  0.08761903
  0.07280825
  0.09716894
  0.05600933
  0.20508428
  0.00193199
 -0.00907732
  0.10831892
  0.06635167
  0.04367596
 -0.08892829
  0.03625084
 -0.00898045
 -0.02276124
  0.02252731
 -0.01311624
  0.03529334
 -0.22332843
 -0.14300944
 -0.06635809
  0.12224369
 -0.01971196
 -0.21443839
 -0.04229941
 -0.18689598
 -0.27307582
 -0.00986819
  0.15765348
 -0.11008991
 -0.07428571
  0.05366067
 -0.04536846
  0.03158353
 -0.00800431
  0.16444823
 -0.01774290
 -0.01094048
 -0.04876534
 -0.01265967
  0.05185274
 -0.11681648
  0.03152724
  0.17741913
  0.10164393
  0.03342703
  0.12290485
 -0.20290847
 -0.03768675
  0.03782419
  0.04600604
  0.02601621
  0.02228855
 -0.08548878
  0.05470654
  0.01424064
  0.10134788
  0.03755133
  0.10831173
  0.03534937
 -0.16788749
  0.09756027
 -0.20165542
  0.03537717
 -0.04944531
 -0.03691010
  0.01655381
  0.10444239
 -0.01273191
  0.02144012
 -0.09146786
  0.03609373
  0.06337710
 -0.00660454
  0.08378484
 -0.05373011
 -0.03477756
  0.12460630
 -0.11724923
 -0.04321073
  0.09490460
 -0.00853467
 -0.20934305
 -0.04317513
 -0.02023723
  0.00492464
  0.05324993
  0.03984223
 -0.10195793
 -0.02017868
  0.12846163
 -0.00065618
 -0.01240336
  0.05573996
  0.05377921
 -0.05499947
 -0.06453662
 -0.01466481
  0.11672444
  0.03806683
 -0.04735852
 -0.02834277
 -0.01042663
  0.02529105
 -0.01585338
  0.05827084
 -0.05529052
  0.04305630
 -0.01568975
 -0.03104956
  0.03500243
 -0.00576728
 -0.06952580
 -0.01032856
  0.02862367
  0.05827085
  0.13356631
  0.19090794
 -0.07346766
 -0.00035130
 -0.01656342
  0.09363939
  0.06374639
  0.01812573
 -0.05409477
 -0.07457823
  0.03365591
 -0.24255332
  0.03911439
  0.06374367
  0.05547042
 -0.07215631
  0.14437196
  0.03176142
 -0.06546228
 -0.00349016
 -0.20498918
  0.02427202
 -0.08394192
 -0.01831166
 -0.04550177
  0.06645618
 -0.01026906
  0.13238567
 -0.06212183
  0.02120664
 -0.28663829
  0.20440635
 -0.00848171
 -0.06425188
 -0.02771693
 -0.01692232
 -0.00348933
  0.02312444
  0.09347120
 -0.10483508
 -0.04897374
  0.12081932
  0.10530110
 -0.05913967
  0.09271963
  0.04032739
 -0.01899831
  0.05334876
 -0.03250830
  0.05356977
 -0.04752664
 -0.04457493
 -0.12208188
  0.06063835
 -0.03228566
 -0.12364305
 -0.04886002
 -0.06021588
 -0.12875867
  0.07941826
 -0.03447108
  0.00272651
  0.04985417
 -0.03329938
  0.05217434
 -0.06441439
 -0.13806640
  0.07928266
 -0.13127443
  0.04232304
 -0.19721058
  0.19333969
  0.08053787
 -0.20229664
  0.11047517
  0.08779364
 -0.00161962
  0.02201115
  0.05531264
  0.07109909
 -0.01780583
  0.03007327
 -0.04781722
  0.03787494
 -0.03411393
 -0.01105850
  0.06458797
 -0.24760380
  0.08695798
  0.07213363
 -0.02493353
 -0.19203898
 -0.06506653
  0.05287433
  0.06344776
  0.02146046
 -0.02451799
 -0.00723535
 -0.11689089
  0.07753323
 -0.20229907
 -0.00480314
 -0.31122410
  0.07879441
  0.06124344
 -0.04192573
 -0.07836220
 -0.10170868
  0.04909618
  0.00143381
 -0.02367957
  0.03629185
  0.00867979
  0.03971940
 -0.01669367
 -0.01181300
 -0.04901201
  0.08199435
 -0.03721637
  0.03123287
  0.03882967
 -0.04082388
 -0.01679824
 -0.15223050
  0.23827225
 -0.02147369
  0.08046012
 -0.02611368
  0.10649460
  0.07765082
  0.00804433
  0.00211757
  0.08275691
  0.01838374
  0.05292111
 -0.24379128
  0.03102151
 -0.15313664
  0.03132307
 -0.10867780
 -0.09044258
  0.10141376
  0.06733220
  0.11520002
 -0.07469723
 -0.29069221
 -0.03700973
 -0.05710459
  0.00082487
  0.00628921
 -0.02994542
 -0.00290172
 -0.00772997
  0.06894191
  0.06509700
 -0.02738797
  0.09484252
  0.01916497
  0.20872796
 -0.08308520
 -0.08441079
  0.03790905
 -0.03127049
 -0.25770548
  0.00708571
 -0.12506536
  0.05815164
 -0.10838678
 -0.07187276
 -0.11008171
  0.02617144
  0.02355114
  0.08877972
 -0.02155050
 -0.06831338
  0.04272985
 -0.05561088
  0.01107406
  0.16227971
 -0.04882650
  0.05302281
 -0.12317379
  0.03886841
 -0.23026076
  0.00106697
 -0.02678953
 -0.09852300
  0.03753239
  0.04214157
  0.03961640
 -0.04352938
  0.07496792
  0.08016664
 -0.06459100
  0.15144350
 -0.07381600
  0.07058044
  0.01003135
 -0.09628592
 -0.13418187
 -0.18780337
 -0.15528101
 -0.00818405
  0.06341809
 -0.05734919
 -0.01796917
 -0.05072586
  0.06199832
  0.02563593
 -0.02313696
  0.06578773
  0.06460807
 -0.05764344
 -0.04412316
  0.01328993
  0.14741321
  0.09543921
 -0.11432810
  0.05704444
  0.07222169
  0.06931599
  0.08112594
 -0.12655793
 -0.01517692
